<?xml version="1.0"?>
<opencv_storage>
<stage0>
  <maxWeakCount>5</maxWeakCount>
  <stageThreshold>-2.2979383468627930e+00</stageThreshold>
  <weakClassifiers>
    <_>
      <internalNodes>
        0 -1 150440 1.9212874770164490e-01</internalNodes>
      <leafValues>
        -7.9090911149978638e-01 8.5882353782653809e-01</leafValues></_>
    <_>
      <internalNodes>
        0 -1 96146 -7.5982525944709778e-02</internalNodes>
      <leafValues>
        -9.0232038497924805e-01 5.2443796396255493e-01</leafValues></_>
    <_>
      <internalNodes>
        0 -1 66583 4.0154132992029190e-02</internalNodes>
      <leafValues>
        -6.6385722160339355e-01 6.6914671659469604e-01</leafValues></_>
    <_>
      <internalNodes>
        0 -1 137996 1.7958433600142598e-03</internalNodes>
      <leafValues>
        -8.1351065635681152e-01 5.0454437732696533e-01</leafValues></_>
    <_>
      <internalNodes>
        0 -1 102278 -4.5902185142040253e-02</internalNodes>
      <leafValues>
        -7.7707368135452271e-01 3.7718865275382996e-01</leafValues></_></weakClassifiers></stage0>
</opencv_storage>
