<?xml version="1.0"?>
<opencv_storage>
<stage1>
  <maxWeakCount>8</maxWeakCount>
  <stageThreshold>-1.9344525337219238e+00</stageThreshold>
  <weakClassifiers>
    <_>
      <internalNodes>
        0 -1 15930 -2.9107119888067245e-02</internalNodes>
      <leafValues>
        5.0434780120849609e-01 -8.1219512224197388e-01</leafValues></_>
    <_>
      <internalNodes>
        0 -1 107229 -3.9255619049072266e-03</internalNodes>
      <leafValues>
        6.2466698884963989e-01 -6.4921391010284424e-01</leafValues></_>
    <_>
      <internalNodes>
        0 -1 149266 -7.8074610792100430e-03</internalNodes>
      <leafValues>
        6.4362901449203491e-01 -5.3364771604537964e-01</leafValues></_>
    <_>
      <internalNodes>
        0 -1 74341 3.2324246130883694e-03</internalNodes>
      <leafValues>
        -7.7701455354690552e-01 4.7929644584655762e-01</leafValues></_>
    <_>
      <internalNodes>
        0 -1 154894 -6.4935699105262756e-02</internalNodes>
      <leafValues>
        -8.3457404375076294e-01 3.4419569373130798e-01</leafValues></_>
    <_>
      <internalNodes>
        0 -1 132081 -2.6394010637886822e-04</internalNodes>
      <leafValues>
        5.7770067453384399e-01 -4.3790319561958313e-01</leafValues></_>
    <_>
      <internalNodes>
        0 -1 159689 2.4927800404839218e-04</internalNodes>
      <leafValues>
        -5.5237650871276855e-01 4.6095502376556396e-01</leafValues></_>
    <_>
      <internalNodes>
        0 -1 132604 -2.4810200557112694e-05</internalNodes>
      <leafValues>
        3.9282992482185364e-01 -5.9002614021301270e-01</leafValues></_></weakClassifiers></stage1>
</opencv_storage>
