<?xml version="1.0"?>
<opencv_storage>
<stage3>
  <maxWeakCount>9</maxWeakCount>
  <stageThreshold>-1.1727949380874634e+00</stageThreshold>
  <weakClassifiers>
    <_>
      <internalNodes>
        0 -1 75106 -1.0546290129423141e-01</internalNodes>
      <leafValues>
        -9.1240876913070679e-01 4.7528517246246338e-01</leafValues></_>
    <_>
      <internalNodes>
        0 -1 37410 -8.2644999027252197e-02</internalNodes>
      <leafValues>
        -7.4071907997131348e-01 4.5067170262336731e-01</leafValues></_>
    <_>
      <internalNodes>
        0 -1 97734 8.5350312292575836e-03</internalNodes>
      <leafValues>
        -8.1167948246002197e-01 4.9231153726577759e-01</leafValues></_>
    <_>
      <internalNodes>
        0 -1 132008 -1.4984747394919395e-02</internalNodes>
      <leafValues>
        -9.2309695482254028e-01 2.5593134760856628e-01</leafValues></_>
    <_>
      <internalNodes>
        0 -1 103114 -2.5192904472351074e-01</internalNodes>
      <leafValues>
        5.6108033657073975e-01 -5.4018986225128174e-01</leafValues></_>
    <_>
      <internalNodes>
        0 -1 62320 -1.0350820422172546e-01</internalNodes>
      <leafValues>
        -8.3480989933013916e-01 2.6031962037086487e-01</leafValues></_>
    <_>
      <internalNodes>
        0 -1 153791 1.4155296375975013e-03</internalNodes>
      <leafValues>
        -4.3520665168762207e-01 5.6230515241622925e-01</leafValues></_>
    <_>
      <internalNodes>
        0 -1 169252 5.9857650194317102e-04</internalNodes>
      <leafValues>
        2.6316195726394653e-01 -7.8048115968704224e-01</leafValues></_>
    <_>
      <internalNodes>
        0 -1 12784 -1.2719047069549561e-01</internalNodes>
      <leafValues>
        2.9660522937774658e-01 -6.9771325588226318e-01</leafValues></_></weakClassifiers></stage3>
</opencv_storage>
