<?xml version="1.0"?>
<opencv_storage>
<stage3>
  <maxWeakCount>11</maxWeakCount>
  <stageThreshold>-1.4216108322143555e+00</stageThreshold>
  <weakClassifiers>
    <_>
      <internalNodes>
        0 -1 49094 1.8558997660875320e-02</internalNodes>
      <leafValues>
        -7.2318339347839355e-01 4.2076501250267029e-01</leafValues></_>
    <_>
      <internalNodes>
        0 -1 138947 -2.4845268577337265e-02</internalNodes>
      <leafValues>
        7.3664331436157227e-01 -4.9504643678665161e-01</leafValues></_>
    <_>
      <internalNodes>
        0 -1 98592 -1.6846444457769394e-02</internalNodes>
      <leafValues>
        -6.7334902286529541e-01 3.6199742555618286e-01</leafValues></_>
    <_>
      <internalNodes>
        0 -1 114318 5.0788205116987228e-03</internalNodes>
      <leafValues>
        -3.5071805119514465e-01 6.0597550868988037e-01</leafValues></_>
    <_>
      <internalNodes>
        0 -1 50773 -8.0084301531314850e-02</internalNodes>
      <leafValues>
        9.0341162681579590e-01 -2.2943122684955597e-01</leafValues></_>
    <_>
      <internalNodes>
        0 -1 5348 -3.8365181535482407e-04</internalNodes>
      <leafValues>
        3.1292197108268738e-01 -6.9985288381576538e-01</leafValues></_>
    <_>
      <internalNodes>
        0 -1 93084 4.7003356739878654e-03</internalNodes>
      <leafValues>
        -4.4764333963394165e-01 4.5649778842926025e-01</leafValues></_>
    <_>
      <internalNodes>
        0 -1 149011 1.7728418111801147e-01</internalNodes>
      <leafValues>
        -3.6621060967445374e-01 5.9703183174133301e-01</leafValues></_>
    <_>
      <internalNodes>
        0 -1 169657 -2.3478038609027863e-02</internalNodes>
      <leafValues>
        -5.9005504846572876e-01 3.4092971682548523e-01</leafValues></_>
    <_>
      <internalNodes>
        0 -1 164561 -1.8324241973459721e-03</internalNodes>
      <leafValues>
        1.6924814879894257e-01 -9.6574002504348755e-01</leafValues></_>
    <_>
      <internalNodes>
        0 -1 33883 2.0784419029951096e-02</internalNodes>
      <leafValues>
        1.3673026859760284e-01 -7.6276981830596924e-01</leafValues></_></weakClassifiers></stage3>
</opencv_storage>
