<?xml version="1.0"?>
<opencv_storage>
<stage9>
  <maxWeakCount>22</maxWeakCount>
  <stageThreshold>-1.6774128675460815e+00</stageThreshold>
  <weakClassifiers>
    <_>
      <internalNodes>
        0 -1 96447 1.1195410043001175e-02</internalNodes>
      <leafValues>
        -6.4975976943969727e-01 5.1541852951049805e-01</leafValues></_>
    <_>
      <internalNodes>
        0 -1 147587 -6.3094474375247955e-02</internalNodes>
      <leafValues>
        2.9354250431060791e-01 -4.9398779869079590e-01</leafValues></_>
    <_>
      <internalNodes>
        0 -1 170330 -1.7929267138242722e-02</internalNodes>
      <leafValues>
        -5.9271097183227539e-01 2.4427483975887299e-01</leafValues></_>
    <_>
      <internalNodes>
        0 -1 152757 -4.9819853156805038e-03</internalNodes>
      <leafValues>
        -7.5821644067764282e-01 1.1929591745138168e-01</leafValues></_>
    <_>
      <internalNodes>
        0 -1 29654 -9.3511240265797824e-05</internalNodes>
      <leafValues>
        1.6693550348281860e-01 -6.6713869571685791e-01</leafValues></_>
    <_>
      <internalNodes>
        0 -1 54001 1.3257246464490891e-02</internalNodes>
      <leafValues>
        -2.5446757674217224e-01 5.3077858686447144e-01</leafValues></_>
    <_>
      <internalNodes>
        0 -1 108353 1.0800638701766729e-03</internalNodes>
      <leafValues>
        -6.6092294454574585e-01 2.0928789675235748e-01</leafValues></_>
    <_>
      <internalNodes>
        0 -1 126324 3.0880160629749298e-03</internalNodes>
      <leafValues>
        1.9134020805358887e-01 -5.9507578611373901e-01</leafValues></_>
    <_>
      <internalNodes>
        0 -1 99830 2.4792347103357315e-02</internalNodes>
      <leafValues>
        -3.4774917364120483e-01 2.8725963830947876e-01</leafValues></_>
    <_>
      <internalNodes>
        0 -1 121884 5.5679604411125183e-02</internalNodes>
      <leafValues>
        -1.3334317505359650e-01 8.4437179565429688e-01</leafValues></_>
    <_>
      <internalNodes>
        0 -1 148461 3.7448905408382416e-02</internalNodes>
      <leafValues>
        -2.0032131671905518e-01 5.7845151424407959e-01</leafValues></_>
    <_>
      <internalNodes>
        0 -1 8832 -4.9076310824602842e-04</internalNodes>
      <leafValues>
        3.5764014720916748e-01 -3.2725059986114502e-01</leafValues></_>
    <_>
      <internalNodes>
        0 -1 33597 -1.2200687080621719e-01</internalNodes>
      <leafValues>
        -2.9935204982757568e-01 3.4918406605720520e-01</leafValues></_>
    <_>
      <internalNodes>
        0 -1 7922 7.6795846689492464e-04</internalNodes>
      <leafValues>
        2.1613633632659912e-01 -5.3314429521560669e-01</leafValues></_>
    <_>
      <internalNodes>
        0 -1 156322 -2.3827582481317222e-05</internalNodes>
      <leafValues>
        2.7658474445343018e-01 -3.9973789453506470e-01</leafValues></_>
    <_>
      <internalNodes>
        0 -1 116172 -6.1641309410333633e-02</internalNodes>
      <leafValues>
        5.1011997461318970e-01 -2.0061559975147247e-01</leafValues></_>
    <_>
      <internalNodes>
        0 -1 133052 4.6202144585549831e-04</internalNodes>
      <leafValues>
        -4.1339743137359619e-01 2.8293645381927490e-01</leafValues></_>
    <_>
      <internalNodes>
        0 -1 122824 -6.2133274972438812e-02</internalNodes>
      <leafValues>
        -7.5537776947021484e-01 1.5708860754966736e-01</leafValues></_>
    <_>
      <internalNodes>
        0 -1 80092 -6.2124453485012054e-02</internalNodes>
      <leafValues>
        9.4942241907119751e-02 -8.5424560308456421e-01</leafValues></_>
    <_>
      <internalNodes>
        0 -1 108407 -1.2943847104907036e-02</internalNodes>
      <leafValues>
        -2.1401770412921906e-01 7.1072828769683838e-01</leafValues></_>
    <_>
      <internalNodes>
        0 -1 132163 3.7381637375801802e-03</internalNodes>
      <leafValues>
        2.1396495401859283e-01 -5.4378426074981689e-01</leafValues></_>
    <_>
      <internalNodes>
        0 -1 137717 3.9203674532473087e-03</internalNodes>
      <leafValues>
        -6.0337686538696289e-01 1.8799744546413422e-01</leafValues></_></weakClassifiers></stage9>
</opencv_storage>
