<?xml version="1.0"?>
<opencv_storage>
<stage6>
  <maxWeakCount>18</maxWeakCount>
  <stageThreshold>-1.6708371639251709e+00</stageThreshold>
  <weakClassifiers>
    <_>
      <internalNodes>
        0 -1 76316 -2.9722130857408047e-03</internalNodes>
      <leafValues>
        3.1076923012733459e-01 -6.7661970853805542e-01</leafValues></_>
    <_>
      <internalNodes>
        0 -1 149921 -7.6891928911209106e-03</internalNodes>
      <leafValues>
        5.3434675931930542e-01 -4.1272309422492981e-01</leafValues></_>
    <_>
      <internalNodes>
        0 -1 99549 5.6744161993265152e-03</internalNodes>
      <leafValues>
        -6.2565064430236816e-01 3.3499315381050110e-01</leafValues></_>
    <_>
      <internalNodes>
        0 -1 88565 -4.6056166291236877e-02</internalNodes>
      <leafValues>
        -4.9601325392723083e-01 2.6818710565567017e-01</leafValues></_>
    <_>
      <internalNodes>
        0 -1 102435 -2.5909072719514370e-03</internalNodes>
      <leafValues>
        2.4880294501781464e-01 -5.2350068092346191e-01</leafValues></_>
    <_>
      <internalNodes>
        0 -1 28581 -7.2128910687752068e-05</internalNodes>
      <leafValues>
        2.3293027281761169e-01 -5.9039866924285889e-01</leafValues></_>
    <_>
      <internalNodes>
        0 -1 20808 -3.7990659475326538e-02</internalNodes>
      <leafValues>
        -9.1886365413665771e-01 1.1333709210157394e-01</leafValues></_>
    <_>
      <internalNodes>
        0 -1 140 2.7502076700329781e-03</internalNodes>
      <leafValues>
        1.0718591511249542e-01 -7.8548192977905273e-01</leafValues></_>
    <_>
      <internalNodes>
        0 -1 126275 1.9185063429176807e-03</internalNodes>
      <leafValues>
        -3.6024713516235352e-01 2.9532107710838318e-01</leafValues></_>
    <_>
      <internalNodes>
        0 -1 96368 -1.2127288617193699e-02</internalNodes>
      <leafValues>
        -2.3443534970283508e-01 5.1670295000076294e-01</leafValues></_>
    <_>
      <internalNodes>
        0 -1 151966 -1.0410817340016365e-03</internalNodes>
      <leafValues>
        1.5313789248466492e-01 -9.3369930982589722e-01</leafValues></_>
    <_>
      <internalNodes>
        0 -1 103753 -2.3467952013015747e-01</internalNodes>
      <leafValues>
        8.1104809045791626e-01 -1.9024136662483215e-01</leafValues></_>
    <_>
      <internalNodes>
        0 -1 114507 -7.7090680599212646e-02</internalNodes>
      <leafValues>
        5.2317738533020020e-01 -1.9065274298191071e-01</leafValues></_>
    <_>
      <internalNodes>
        0 -1 112047 3.3110361982835457e-05</internalNodes>
      <leafValues>
        -5.5020874738693237e-01 1.9243863224983215e-01</leafValues></_>
    <_>
      <internalNodes>
        0 -1 112135 -4.6958212624303997e-04</internalNodes>
      <leafValues>
        -6.2544977664947510e-01 1.5684120357036591e-01</leafValues></_>
    <_>
      <internalNodes>
        0 -1 112078 -3.6099697463214397e-03</internalNodes>
      <leafValues>
        1.6988065838813782e-01 -6.0314136743545532e-01</leafValues></_>
    <_>
      <internalNodes>
        0 -1 88834 -4.1890777647495270e-02</internalNodes>
      <leafValues>
        8.7179547548294067e-01 -1.6335192322731018e-01</leafValues></_>
    <_>
      <internalNodes>
        0 -1 98812 -3.9318120107054710e-03</internalNodes>
      <leafValues>
        -6.5820837020874023e-01 2.4292606115341187e-01</leafValues></_></weakClassifiers></stage6>
</opencv_storage>
